digraph Tree {
node [shape=box, fontname="helvetica"] ;
edge [fontname="helvetica"] ;
0 [label="x[962] <= 0.079\ngini = 0.494\nsamples = 3933\nvalue = [1750, 2183]"] ;
1 [label="x[4080] <= 0.118\ngini = 0.495\nsamples = 3909\nvalue = [1750, 2159]"] ;
0 -> 1 [labeldistance=2.5, labelangle=45, headlabel="True"] ;
2 [label="x[13786] <= 0.025\ngini = 0.494\nsamples = 3871\nvalue = [1720, 2151]"] ;
1 -> 2 ;
3 [label="x[3531] <= 0.035\ngini = 0.49\nsamples = 3114\nvalue = [1334, 1780]"] ;
2 -> 3 ;
4 [label="x[4326] <= 0.029\ngini = 0.488\nsamples = 3060\nvalue = [1297, 1763]"] ;
3 -> 4 ;
5 [label="gini = 0.491\nsamples = 2894\nvalue = [1253, 1641]"] ;
4 -> 5 ;
6 [label="gini = 0.39\nsamples = 166\nvalue = [44, 122]"] ;
4 -> 6 ;
7 [label="x[9017] <= 0.026\ngini = 0.431\nsamples = 54\nvalue = [37, 17]"] ;
3 -> 7 ;
8 [label="gini = 0.359\nsamples = 47\nvalue = [36, 11]"] ;
7 -> 8 ;
9 [label="gini = 0.245\nsamples = 7\nvalue = [1, 6]"] ;
7 -> 9 ;
10 [label="x[4350] <= 0.038\ngini = 0.5\nsamples = 757\nvalue = [386, 371]"] ;
2 -> 10 ;
11 [label="x[5872] <= 0.051\ngini = 0.499\nsamples = 731\nvalue = [383, 348]"] ;
10 -> 11 ;
12 [label="gini = 0.497\nsamples = 705\nvalue = [379, 326]"] ;
11 -> 12 ;
13 [label="gini = 0.26\nsamples = 26\nvalue = [4, 22]"] ;
11 -> 13 ;
14 [label="x[7085] <= 0.013\ngini = 0.204\nsamples = 26\nvalue = [3, 23]"] ;
10 -> 14 ;
15 [label="gini = 0.0\nsamples = 23\nvalue = [0, 23]"] ;
14 -> 15 ;
16 [label="gini = 0.0\nsamples = 3\nvalue = [3, 0]"] ;
14 -> 16 ;
17 [label="x[13180] <= 0.013\ngini = 0.332\nsamples = 38\nvalue = [30, 8]"] ;
1 -> 17 ;
18 [label="x[4890] <= 0.032\ngini = 0.124\nsamples = 30\nvalue = [28, 2]"] ;
17 -> 18 ;
19 [label="gini = 0.0\nsamples = 28\nvalue = [28, 0]"] ;
18 -> 19 ;
20 [label="gini = 0.0\nsamples = 2\nvalue = [0, 2]"] ;
18 -> 20 ;
21 [label="gini = 0.375\nsamples = 8\nvalue = [2, 6]"] ;
17 -> 21 ;
22 [label="gini = 0.0\nsamples = 24\nvalue = [0, 24]"] ;
0 -> 22 [labeldistance=2.5, labelangle=-45, headlabel="False"] ;
}